net
{
	propagationenginegenerator1791944048146838126L = "edu.ucla.belief.approx.BeliefPropagationSettings@122ea329";
	jenginegenerator6060830225489488864L = "edu.ucla.belief.inference.JoinTreeSettings@6bc102c0";
	recoveryenginegenerator6944530267470113528l = "edu.ucla.util.SettingsImpl@6b43eb33";
	node_size = (130 55);
}

node variable13
{
	states = ("puntos_0" "puntos_1" "puntos_2" );
	position = (889 -141);
	diagnosistype = "AUXILIARY";
	DSLxSUBMODEL = "Root Submodel";
	ismapvariable = "false";
	ID = "variable13";
	label = "Puntos_e7";
	excludepolicy = "include whole CPT";
}
node variable1
{
	states = ("e2" "e4" );
	position = (186 -13);
	diagnosistype = "AUXILIARY";
	DSLxSUBMODEL = "Root Submodel";
	ismapvariable = "false";
	ID = "variable1";
	label = "Partido2_Grupo1";
	excludepolicy = "include whole CPT";
}
node variable6
{
	states = ("e2" "e3" "e4" );
	position = (186 -263);
	diagnosistype = "AUXILIARY";
	DSLxSUBMODEL = "Root Submodel";
	ismapvariable = "false";
	ID = "variable6";
	label = "Ganador_Grupo1";
	excludepolicy = "include whole CPT";
}
node variable10
{
	states = ("e6" "e7" );
	position = (886 -19);
	diagnosistype = "AUXILIARY";
	DSLxSUBMODEL = "Root Submodel";
	ismapvariable = "false";
	ID = "variable10";
	label = "Partido3_Grupo2";
	excludepolicy = "include whole CPT";
}
node variable16
{
	states = ("e5" "e6" "e7" "e8" );
	position = (736 -371);
	diagnosistype = "AUXILIARY";
	DSLxSUBMODEL = "Root Submodel";
	ismapvariable = "false";
	ID = "variable16";
	label = "Partido_Campeon";
	excludepolicy = "include whole CPT";
}
node variable4
{
	states = ("puntos_0" "puntos_1" "puntos_2" );
	position = (185 -131);
	diagnosistype = "AUXILIARY";
	DSLxSUBMODEL = "Root Submodel";
	ismapvariable = "false";
	ID = "variable4";
	label = "Puntos_e3";
	excludepolicy = "include whole CPT";
}
node variable11
{
	states = ("puntos_0" "puntos_1" "puntos_2" );
	position = (556 -139);
	diagnosistype = "AUXILIARY";
	DSLxSUBMODEL = "Root Submodel";
	ismapvariable = "false";
	ID = "variable11";
	label = "Puntos_e5";
	excludepolicy = "include whole CPT";
}
node variable18
{
	states = ("e1" "e2" "e3" "e4" "e5" "e6" "e7" "e8" );
	position = (470 -516);
	diagnosistype = "AUXILIARY";
	DSLxSUBMODEL = "Root Submodel";
	ismapvariable = "false";
	ID = "variable18";
	label = "Ganador";
	excludepolicy = "include whole CPT";
}
node variable0
{
	states = ("e2" "e3" );
	position = (19 -10);
	diagnosistype = "AUXILIARY";
	DSLxSUBMODEL = "Root Submodel";
	ismapvariable = "false";
	ID = "variable0";
	label = "Partido1_Grupo1";
	excludepolicy = "include whole CPT";
}
node variable17
{
	states = ("e1" "e2" "e3" "e4" "e5" "e6" "e7" "e8" );
	position = (469 -439);
	diagnosistype = "AUXILIARY";
	DSLxSUBMODEL = "Root Submodel";
	ismapvariable = "false";
	ID = "variable17";
	label = "Partido_Final";
	excludepolicy = "include whole CPT";
}
node variable2
{
	states = ("e3" "e4" );
	position = (346 -15);
	diagnosistype = "AUXILIARY";
	DSLxSUBMODEL = "Root Submodel";
	ismapvariable = "false";
	ID = "variable2";
	label = "Partido3_Grupo1";
	excludepolicy = "include whole CPT";
}
node variable5
{
	states = ("puntos_0" "puntos_1" "puntos_2" );
	position = (353 -136);
	diagnosistype = "AUXILIARY";
	DSLxSUBMODEL = "Root Submodel";
	ismapvariable = "false";
	ID = "variable5";
	label = "Puntos_e4";
	excludepolicy = "include whole CPT";
}
node variable3
{
	states = ("puntos_0" "puntos_1" "puntos_2" );
	position = (13 -134);
	diagnosistype = "AUXILIARY";
	DSLxSUBMODEL = "Root Submodel";
	ismapvariable = "false";
	ID = "variable3";
	label = "Puntos_e2";
	excludepolicy = "include whole CPT";
}
node variable8
{
	states = ("e5" "e6" );
	position = (554 -20);
	diagnosistype = "AUXILIARY";
	DSLxSUBMODEL = "Root Submodel";
	ismapvariable = "false";
	ID = "variable8";
	label = "Partido1_Grupo1";
	excludepolicy = "include whole CPT";
}
node variable15
{
	states = ("e1" "e2" "e3" "e4" );
	position = (187 -362);
	diagnosistype = "AUXILIARY";
	DSLxSUBMODEL = "Root Submodel";
	ismapvariable = "false";
	ID = "variable15";
	label = "Partido_Anfitrion";
	excludepolicy = "include whole CPT";
}
node variable14
{
	states = ("e5" "e6" "e7" );
	position = (734 -267);
	diagnosistype = "AUXILIARY";
	DSLxSUBMODEL = "Root Submodel";
	ismapvariable = "false";
	ID = "variable14";
	label = "Ganador_Grupo2";
	excludepolicy = "include whole CPT";
}
node variable9
{
	states = ("e5" "e7" );
	position = (730 -20);
	diagnosistype = "AUXILIARY";
	DSLxSUBMODEL = "Root Submodel";
	ismapvariable = "false";
	ID = "variable9";
	label = "Partido2_Grupo2";
	excludepolicy = "include whole CPT";
}
node variable12
{
	states = ("puntos_0" "puntos_1" "puntos_2" );
	position = (728 -142);
	diagnosistype = "AUXILIARY";
	DSLxSUBMODEL = "Root Submodel";
	ismapvariable = "false";
	ID = "variable12";
	label = "Puntos_e6";
	excludepolicy = "include whole CPT";
}
potential ( variable13 | variable9 variable10 )
{
	data = (((	1.0	0.0	0.0	)
		(	0.0	1.0	0.0	))
		((	0.0	1.0	0.0	)
		(	0.0	0.0	1.0	)));
}
potential ( variable1 | )
{
	data = (	0.3333	0.6667	);
}
potential ( variable6 | variable3 variable4 variable5 )
{
	data = ((((	0.3333333333333333	0.3333333333333333	0.3333333333333333	)
		(	0.0	0.0	1.0	)
		(	0.0	0.0	1.0	))
		((	0.0	1.0	0.0	)
		(	0.0	0.5	0.5	)
		(	0.0	0.0	1.0	))
		((	0.0	1.0	0.0	)
		(	0.0	1.0	0.0	)
		(	0.0	0.5	0.5	)))
		(((	1.0	0.0	0.0	)
		(	0.5	0.0	0.5	)
		(	0.0	0.0	1.0	))
		((	0.5	0.5	0.0	)
		(	0.3333333333333333	0.3333333333333333	0.3333333333333333	)
		(	0.0	0.0	1.0	))
		((	0.0	1.0	0.0	)
		(	0.0	1.0	0.0	)
		(	0.0	0.5	0.5	)))
		(((	1.0	0.0	0.0	)
		(	1.0	0.0	0.0	)
		(	0.5	0.0	0.5	))
		((	1.0	0.0	0.0	)
		(	1.0	0.0	0.0	)
		(	0.5	0.0	0.5	))
		((	0.5	0.5	0.0	)
		(	0.5	0.5	0.0	)
		(	0.3333333333333333	0.3333333333333333	0.3333333333333333	))));
}
potential ( variable10 | )
{
	data = (	0.4615	0.5385	);
}
potential ( variable16 | variable14 )
{
	data = ((	0.125	0.0	0.0	0.875	)
		(	0.0	0.25	0.0	0.75	)
		(	0.0	0.0	0.1	0.9	));
}
potential ( variable4 | variable0 variable2 )
{
	data = (((	0.0	1.0	0.0	)
		(	1.0	0.0	0.0	))
		((	0.0	0.0	1.0	)
		(	0.0	1.0	0.0	)));
}
potential ( variable11 | variable8 variable9 )
{
	data = (((	0.0	0.0	1.0	)
		(	0.0	1.0	0.0	))
		((	0.0	1.0	0.0	)
		(	1.0	0.0	0.0	)));
}
potential ( variable18 | variable17 )
{
	data = ((	1.0	0.0	0.0	0.0	0.0	0.0	0.0	0.0	)
		(	0.0	1.0	0.0	0.0	0.0	0.0	0.0	0.0	)
		(	0.0	0.0	1.0	0.0	0.0	0.0	0.0	0.0	)
		(	0.0	0.0	0.0	1.0	0.0	0.0	0.0	0.0	)
		(	0.0	0.0	0.0	0.0	1.0	0.0	0.0	0.0	)
		(	0.0	0.0	0.0	0.0	0.0	1.0	0.0	0.0	)
		(	0.0	0.0	0.0	0.0	0.0	0.0	1.0	0.0	)
		(	0.0	0.0	0.0	0.0	0.0	0.0	0.0	1.0	));
}
potential ( variable0 | )
{
	data = (	0.4	0.6	);
}
potential ( variable17 | variable15 variable16 )
{
	data = (((	0.64	0.0	0.0	0.0	0.36	0.0	0.0	0.0	)
		(	0.43	0.0	0.0	0.0	0.0	0.57	0.0	0.0	)
		(	0.7	0.0	0.0	0.0	0.0	0.0	0.3	0.0	)
		(	0.2	0.0	0.0	0.0	0.0	0.0	0.0	0.8	))
		((	0.0	0.54	0.0	0.0	0.46	0.0	0.0	0.0	)
		(	0.0	0.4	0.0	0.0	0.0	0.6	0.0	0.0	)
		(	0.0	0.58	0.0	0.0	0.0	0.0	0.42	0.0	)
		(	0.0	0.15	0.0	0.0	0.0	0.0	0.0	0.85	))
		((	0.0	0.0	0.59	0.0	0.41	0.0	0.0	0.0	)
		(	0.0	0.0	0.375	0.0	0.0	0.625	0.0	0.0	)
		(	0.0	0.0	0.62	0.0	0.0	0.0	0.38	0.0	)
		(	0.0	0.0	0.17	0.0	0.0	0.0	0.0	0.83	))
		((	0.0	0.0	0.0	0.8	0.2	0.0	0.0	0.0	)
		(	0.0	0.0	0.0	0.6	0.0	0.4	0.0	0.0	)
		(	0.0	0.0	0.0	0.8	0.0	0.0	0.2	0.0	)
		(	0.0	0.0	0.0	0.4	0.0	0.0	0.0	0.6	)));
}
potential ( variable2 | )
{
	data = (	0.4286	0.5714	);
}
potential ( variable5 | variable1 variable2 )
{
	data = (((	1.0	0.0	0.0	)
		(	0.0	1.0	0.0	))
		((	0.0	1.0	0.0	)
		(	0.0	0.0	1.0	)));
}
potential ( variable3 | variable0 variable1 )
{
	data = (((	0.0	0.0	1.0	)
		(	0.0	1.0	0.0	))
		((	0.0	1.0	0.0	)
		(	1.0	0.0	0.0	)));
}
potential ( variable8 | )
{
	data = (	0.4545	0.5455	);
}
potential ( variable15 | variable6 )
{
	data = ((	0.6	0.4	0.0	0.0	)
		(	0.5	0.0	0.5	0.0	)
		(	0.3	0.0	0.0	0.7	));
}
potential ( variable14 | variable11 variable12 variable13 )
{
	data = ((((	0.3333333333333333	0.3333333333333333	0.3333333333333333	)
		(	0.0	0.0	1.0	)
		(	0.0	0.0	1.0	))
		((	0.0	1.0	0.0	)
		(	0.0	0.5	0.5	)
		(	0.0	0.0	1.0	))
		((	0.0	1.0	0.0	)
		(	0.0	1.0	0.0	)
		(	0.0	0.5	0.5	)))
		(((	1.0	0.0	0.0	)
		(	0.5	0.0	0.5	)
		(	0.0	0.0	1.0	))
		((	0.5	0.5	0.0	)
		(	0.3333333333333333	0.3333333333333333	0.3333333333333333	)
		(	0.0	0.0	1.0	))
		((	0.0	1.0	0.0	)
		(	0.0	1.0	0.0	)
		(	0.0	0.5	0.5	)))
		(((	1.0	0.0	0.0	)
		(	1.0	0.0	0.0	)
		(	0.5	0.0	0.5	))
		((	1.0	0.0	0.0	)
		(	1.0	0.0	0.0	)
		(	0.5	0.0	0.5	))
		((	0.5	0.5	0.0	)
		(	0.5	0.5	0.0	)
		(	0.3333333333333333	0.3333333333333333	0.3333333333333333	))));
}
potential ( variable9 | )
{
	data = (	0.4167	0.5833	);
}
potential ( variable12 | variable8 variable10 )
{
	data = (((	0.0	1.0	0.0	)
		(	1.0	0.0	0.0	))
		((	0.0	0.0	1.0	)
		(	0.0	1.0	0.0	)));
}
